digraph Tree {
node [shape=box, style="filled, rounded", color="black", fontname="helvetica"] ;
edge [fontname="helvetica"] ;
0 [label="pncA_V155G <= 0.5\ngini = 0.239\nsamples = 2370\nvalue = [3258, 526]\nclass = 0", fillcolor="#e99559"] ;
1 [label="ethA_N345K <= 0.5\ngini = 0.366\nsamples = 51\nvalue = [21, 66]\nclass = 1", fillcolor="#78bced"] ;
0 -> 1 [labeldistance=2.5, labelangle=45, headlabel="True"] ;
2 [label="ethA_2_W69C <= 0.5\ngini = 0.252\nsamples = 35\nvalue = [9, 52]\nclass = 1", fillcolor="#5baeea"] ;
1 -> 2 ;
3 [label="gini = 0.0\nsamples = 2\nvalue = [0, 5]\nclass = 1", fillcolor="#399de5"] ;
2 -> 3 ;
4 [label="pncA_C138S <= 0.5\ngini = 0.27\nsamples = 33\nvalue = [9, 47]\nclass = 1", fillcolor="#5fb0ea"] ;
2 -> 4 ;
5 [label="pncA_M1S <= 0.5\ngini = 0.237\nsamples = 30\nvalue = [7, 44]\nclass = 1", fillcolor="#58ade9"] ;
4 -> 5 ;
6 [label="gini = 0.42\nsamples = 5\nvalue = [3, 7]\nclass = 1", fillcolor="#8ec7f0"] ;
5 -> 6 ;
7 [label="pncA_V125D <= 0.5\ngini = 0.176\nsamples = 25\nvalue = [4, 37]\nclass = 1", fillcolor="#4ea8e8"] ;
5 -> 7 ;
8 [label="gini = 0.0\nsamples = 11\nvalue = [0, 14]\nclass = 1", fillcolor="#399de5"] ;
7 -> 8 ;
9 [label="gini = 0.252\nsamples = 14\nvalue = [4, 23]\nclass = 1", fillcolor="#5baeea"] ;
7 -> 9 ;
10 [label="gini = 0.48\nsamples = 3\nvalue = [2, 3]\nclass = 1", fillcolor="#bddef6"] ;
4 -> 10 ;
11 [label="pncA_I90S <= 0.5\ngini = 0.497\nsamples = 16\nvalue = [12, 14]\nclass = 1", fillcolor="#e3f1fb"] ;
1 -> 11 ;
12 [label="gini = 0.444\nsamples = 8\nvalue = [10, 5]\nclass = 0", fillcolor="#f2c09c"] ;
11 -> 12 ;
13 [label="gini = 0.298\nsamples = 8\nvalue = [2, 9]\nclass = 1", fillcolor="#65b3eb"] ;
11 -> 13 ;
14 [label="pncA_W68C <= 0.5\ngini = 0.218\nsamples = 2319\nvalue = [3237, 460]\nclass = 0", fillcolor="#e99355"] ;
0 -> 14 [labeldistance=2.5, labelangle=-45, headlabel="False"] ;
15 [label="gini = 0.245\nsamples = 9\nvalue = [2, 12]\nclass = 1", fillcolor="#5aade9"] ;
14 -> 15 ;
16 [label="pncA_V180F <= 0.5\ngini = 0.214\nsamples = 2310\nvalue = [3235, 448]\nclass = 0", fillcolor="#e99254"] ;
14 -> 16 ;
17 [label="gini = 0.32\nsamples = 9\nvalue = [3, 12]\nclass = 1", fillcolor="#6ab6ec"] ;
16 -> 17 ;
18 [label="pncA_K96N <= 0.5\ngini = 0.209\nsamples = 2301\nvalue = [3232, 436]\nclass = 0", fillcolor="#e99254"] ;
16 -> 18 ;
19 [label="gini = 0.426\nsamples = 7\nvalue = [4, 9]\nclass = 1", fillcolor="#91c9f1"] ;
18 -> 19 ;
20 [label="embB_1_M306L <= 0.5\ngini = 0.206\nsamples = 2294\nvalue = [3228, 427]\nclass = 0", fillcolor="#e89253"] ;
18 -> 20 ;
21 [label="embB_M306L <= 0.5\ngini = 0.284\nsamples = 1167\nvalue = [1550, 321]\nclass = 0", fillcolor="#ea9b62"] ;
20 -> 21 ;
22 [label="embB_1_G406A <= 0.5\ngini = 0.466\nsamples = 450\nvalue = [461, 270]\nclass = 0", fillcolor="#f4cbad"] ;
21 -> 22 ;
23 [label="embB_Y319D <= 0.5\ngini = 0.406\nsamples = 316\nvalue = [372, 147]\nclass = 0", fillcolor="#efb387"] ;
22 -> 23 ;
24 [label="pncA_H57Q <= 0.5\ngini = 0.447\nsamples = 257\nvalue = [279, 142]\nclass = 0", fillcolor="#f2c19e"] ;
23 -> 24 ;
25 [label="gini = 0.0\nsamples = 39\nvalue = [0, 67]\nclass = 1", fillcolor="#399de5"] ;
24 -> 25 ;
26 [label="pncA_G97S <= 0.5\ngini = 0.334\nsamples = 218\nvalue = [279, 75]\nclass = 0", fillcolor="#eca36e"] ;
24 -> 26 ;
27 [label="gini = 0.337\nsamples = 9\nvalue = [3, 11]\nclass = 1", fillcolor="#6fb8ec"] ;
26 -> 27 ;
28 [label="embB_D1024N <= 0.5\ngini = 0.306\nsamples = 209\nvalue = [276, 64]\nclass = 0", fillcolor="#eb9e67"] ;
26 -> 28 ;
29 [label="(...)", fillcolor="#C0C0C0"] ;
28 -> 29 ;
36 [label="(...)", fillcolor="#C0C0C0"] ;
28 -> 36 ;
43 [label="gidB_V188M <= 0.5\ngini = 0.097\nsamples = 59\nvalue = [93, 5]\nclass = 0", fillcolor="#e68844"] ;
23 -> 43 ;
44 [label="gini = 0.375\nsamples = 3\nvalue = [3, 1]\nclass = 0", fillcolor="#eeab7b"] ;
43 -> 44 ;
45 [label="gini = 0.081\nsamples = 56\nvalue = [90, 4]\nclass = 0", fillcolor="#e68742"] ;
43 -> 45 ;
46 [label="ethA_2_Q254P <= 0.5\ngini = 0.487\nsamples = 134\nvalue = [89, 123]\nclass = 1", fillcolor="#c8e4f8"] ;
22 -> 46 ;
47 [label="katG_1_S315G <= 0.5\ngini = 0.403\nsamples = 16\nvalue = [7, 18]\nclass = 1", fillcolor="#86c3ef"] ;
46 -> 47 ;
48 [label="gini = 0.465\nsamples = 12\nvalue = [7, 12]\nclass = 1", fillcolor="#acd6f4"] ;
47 -> 48 ;
49 [label="gini = 0.0\nsamples = 4\nvalue = [0, 6]\nclass = 1", fillcolor="#399de5"] ;
47 -> 49 ;
50 [label="gini = 0.492\nsamples = 118\nvalue = [82, 105]\nclass = 1", fillcolor="#d4eaf9"] ;
46 -> 50 ;
51 [label="ethA_H102P <= 0.5\ngini = 0.085\nsamples = 717\nvalue = [1089, 51]\nclass = 0", fillcolor="#e68742"] ;
21 -> 51 ;
52 [label="gini = 0.165\nsamples = 6\nvalue = [10, 1]\nclass = 0", fillcolor="#e88e4d"] ;
51 -> 52 ;
53 [label="embB_G406D <= 0.5\ngini = 0.085\nsamples = 711\nvalue = [1079, 50]\nclass = 0", fillcolor="#e68742"] ;
51 -> 53 ;
54 [label="gini = 0.153\nsamples = 10\nvalue = [11, 1]\nclass = 0", fillcolor="#e78c4b"] ;
53 -> 54 ;
55 [label="pncA_H71E <= 0.5\ngini = 0.084\nsamples = 701\nvalue = [1068, 49]\nclass = 0", fillcolor="#e68742"] ;
53 -> 55 ;
56 [label="gini = 0.0\nsamples = 2\nvalue = [0, 3]\nclass = 1", fillcolor="#399de5"] ;
55 -> 56 ;
57 [label="gyrA_2_T83I <= 0.5\ngini = 0.079\nsamples = 699\nvalue = [1068, 46]\nclass = 0", fillcolor="#e68642"] ;
55 -> 57 ;
58 [label="gidB_H48Y <= 0.5\ngini = 0.079\nsamples = 697\nvalue = [1065, 46]\nclass = 0", fillcolor="#e68642"] ;
57 -> 58 ;
59 [label="(...)", fillcolor="#C0C0C0"] ;
58 -> 59 ;
60 [label="(...)", fillcolor="#C0C0C0"] ;
58 -> 60 ;
67 [label="gini = 0.0\nsamples = 2\nvalue = [3, 0]\nclass = 0", fillcolor="#e58139"] ;
57 -> 67 ;
68 [label="gyrA_1_D94T <= 0.5\ngini = 0.112\nsamples = 1127\nvalue = [1678, 106]\nclass = 0", fillcolor="#e78946"] ;
20 -> 68 ;
69 [label="gidB_D67H <= 0.5\ngini = 0.32\nsamples = 32\nvalue = [44, 11]\nclass = 0", fillcolor="#eca06a"] ;
68 -> 69 ;
70 [label="gini = 0.49\nsamples = 4\nvalue = [4, 3]\nclass = 0", fillcolor="#f8e0ce"] ;
69 -> 70 ;
71 [label="ethA_2_A341V <= 0.5\ngini = 0.278\nsamples = 28\nvalue = [40, 8]\nclass = 0", fillcolor="#ea9a61"] ;
69 -> 71 ;
72 [label="gini = 0.444\nsamples = 3\nvalue = [2, 1]\nclass = 0", fillcolor="#f2c09c"] ;
71 -> 72 ;
73 [label="gini = 0.263\nsamples = 25\nvalue = [38, 7]\nclass = 0", fillcolor="#ea985d"] ;
71 -> 73 ;
74 [label="pncA_L4W <= 0.5\ngini = 0.104\nsamples = 1095\nvalue = [1634, 95]\nclass = 0", fillcolor="#e78845"] ;
68 -> 74 ;
75 [label="gini = 0.0\nsamples = 2\nvalue = [0, 3]\nclass = 1", fillcolor="#399de5"] ;
74 -> 75 ;
76 [label="gidB_V188M <= 0.5\ngini = 0.101\nsamples = 1093\nvalue = [1634, 92]\nclass = 0", fillcolor="#e68844"] ;
74 -> 76 ;
77 [label="gidB_A134E <= 0.5\ngini = 0.192\nsamples = 58\nvalue = [83, 10]\nclass = 0", fillcolor="#e89051"] ;
76 -> 77 ;
78 [label="gidB_Q127P <= 0.5\ngini = 0.201\nsamples = 54\nvalue = [78, 10]\nclass = 0", fillcolor="#e89152"] ;
77 -> 78 ;
79 [label="gidB_L49F <= 0.5\ngini = 0.208\nsamples = 52\nvalue = [75, 10]\nclass = 0", fillcolor="#e89253"] ;
78 -> 79 ;
80 [label="(...)", fillcolor="#C0C0C0"] ;
79 -> 80 ;
81 [label="(...)", fillcolor="#C0C0C0"] ;
79 -> 81 ;
84 [label="gini = 0.0\nsamples = 2\nvalue = [3, 0]\nclass = 0", fillcolor="#e58139"] ;
78 -> 84 ;
85 [label="gini = 0.0\nsamples = 4\nvalue = [5, 0]\nclass = 0", fillcolor="#e58139"] ;
77 -> 85 ;
86 [label="embB_1_P397Q <= 0.5\ngini = 0.095\nsamples = 1035\nvalue = [1551, 82]\nclass = 0", fillcolor="#e68843"] ;
76 -> 86 ;
87 [label="gini = 0.0\nsamples = 5\nvalue = [11, 0]\nclass = 0", fillcolor="#e58139"] ;
86 -> 87 ;
88 [label="pncA_Y103H <= 0.5\ngini = 0.096\nsamples = 1030\nvalue = [1540, 82]\nclass = 0", fillcolor="#e68844"] ;
86 -> 88 ;
89 [label="gini = 0.444\nsamples = 3\nvalue = [2, 4]\nclass = 1", fillcolor="#9ccef2"] ;
88 -> 89 ;
90 [label="embB_1_Y319C <= 0.5\ngini = 0.092\nsamples = 1027\nvalue = [1538, 78]\nclass = 0", fillcolor="#e68743"] ;
88 -> 90 ;
91 [label="(...)", fillcolor="#C0C0C0"] ;
90 -> 91 ;
92 [label="(...)", fillcolor="#C0C0C0"] ;
90 -> 92 ;
}